-0.146435728266385 -5.85395092153335 -0.633997964456718 1.7207987784866 -1.24713482770204 2.02475214905114 -0.978152822219891 -0.420230581462647 -1.1364843836191 0.465536434296246 0.706329256649252 -0.997936784779262 1.59517813536601 0.944041426806371 -0.570731467903645 -0.819858386816535 -2.20833303898476 -0.293316697711506 1.15148740810062 -2.87868008332196 -1.59494533273303 -0.820624118700557 1.40683298884967 -1.05199890517295 1.08724533628398 1.19477046596409 -1.06895410491021 -0.171823970596451 0.763789548067395 0.65086463462961 -1.55806912001308 -0.400681222764097 1.20004997992796 0.639006442391358 0.394938623721112 0.0111532102101496 0.0951246061714511 1.80885853607683 -3.47544511177492 2.9108726902263 -0.807336913869465 -1.13033625307323 0.606203697010672 -0.0482385119500149 -0.540629412929561 -1.37045727511636 0.66898719605142 0.549131019809295 1.63943875605824 -1.85426169709225 3.99314999173544 2.74773176106347 -1.24322505045279 2.02185674673102 -2.37509231840176 -2.0363743503409 2.48423629580311 1.48885115998182 -3.05006622497184 3.27825143851422 -0.977496387774084 1.27746572662565 0.71425374941273 0.202107615297646 -0.0994856317442584 -0.350133865657236 0.862732934922796 -0.612592035677002 0.413528223976976 -1.55223218599313 0.888927964526711 0.214983714460233 0.591231266258996 -0.0521688071755973 0.0503176993377489 -0.0541675543473582 -0.205512920184738 -0.154884124471772 2.03882465898037 0.434927961908942 -0.907688022414797 0.531509546896785 -0.443184934563856 0.758682331708259 0.225277792513745 0.153006105391149 0.406705860416982 -0.0240036213647031 0.554168603850527 -0.162115493942796 0.012922768290691 -0.109301128673698
