-0.421891382415572 -2.14406013875223 0.142952657469591 1.2447209550665 -0.0204398578129892 0.376691816097823 -0.400801690388054 0.123492938894745 0.765583555087431 2.46685569603872 -0.440552426107425 0.203153229379741 0.341408507727148 -0.2764118124786 -0.110545725065561 -0.252286676055125 2.09933363880366 -0.0143924440141063 0.0416208027369982 0.428686214565539 -0.0553611151219821 1.97942213925563 0.0401023192682521 -0.122145050787897 -0.0235860232072101 -0.164133808592512 -1.72936286363658 -0.0508225383411433 0.0546443264676239 1.72162661828507 0.325912108722509 0.192205984383112 0.0974597904053252 0.97033609845114 0.52911937749926 -1.52924239988392 -0.100596016124276 0.888523917876135 0.351156561930625 -0.394276165205672 -0.355205989288133 -0.829727954219243 -0.0824881495469303 0.440849661394267 -0.0132328654230632 -1.00713700071943 0.188624380125332 0.402015316537465 -0.774286317225003 -0.508812897178082 0.0948424810812542 -3.03386090767208 -0.0826822997107224 0.437650535624749 0.00898955044715612 0.24347587243828 2.63939489752709 0.0247913417360836 -0.146273038424321 -2.58295282534291 -0.0816130174931841 -1.56845284084404 -0.0409784576596843 -0.349041108688645 -0.113548362749363 0.43929367731211 1.12545069495054 -0.176424943971894 -0.0707210906706249 -1.3266944808571 0.00923063892596707 0.139604632973913 0.467639784182063 -0.277893245334483 -0.00513208327512227 -0.0730263867231494 -0.112492365985564 0.0358067346443575 0.0701683954645308 0.0545097891099001 0.0769329479453856 0.032458383464713 -0.0502618098701174 -0.604062807647815 0.171121920299629 0.0300150967485707 0.0433687645729279 -0.10211836626234 -0.53355558370473 -0.293210868072362 -0.0119900998331441 -0.0769534634356616
