0.0880160904899314 0.391152449600004 -0.885380383527549 -0.761450231895526 -0.914695961361144 -0.900237861974276 0.691802621675563 -0.0659610727177752 -0.282342389823097 -0.762178217881442 -0.581075715637335 0.69406817932337 -0.743213938429586 -0.431916876431516 0.592322626892628 -0.148196359699683 0.444561014624574 0.929295342382647 -0.16111563200183 0.773164381167462 -0.164754092304387 -0.131479897131901 0.0638428679964704 -0.43793677046799 0.470152317299579 -0.210263874945354 0.472036014996486 0.406229003056059 -0.364465659188324 -0.536978871345976 -0.2421649038988 0.0998894158284596 0.492137631164928 -0.801469111722647 -0.781060479479404 0.963193188404289 0.657409962107153 -0.716735633889556 0.180233629038666 0.0714716730040832 -0.504367571093313 0.545765615788179 -0.337696466286525 -0.414680684644115 0.0366109474732592 0.780169868739401 0.457770255141785 -0.789061555540683 0.96359967531804 -0.844590305278353 -0.473520236775987 0.906069372736881 0.651524062106164 0.894738793324092 0.0219144006361787 0.988126674661472 0.899014818435076 0.916088728195098 -0.980389752416122 -0.877889149765432 -0.557647824081428 0.408538255565119 0.753805298243559 0.64618593717282 0.742189353211871 -0.126841331425515 0.031764645609895 0.671466746214529 0.531472176095225 0.812152758153227 0.394033385158532 0.233622570165257 0.965695667064607 -0.316525326723477 0.246684617943449 -0.0708234650412684 0.216996040761935 0.169104074672379 0.540148828895832 0.482025642638107 -0.10927869338043 0.555947286801388 0.386618755472181 -0.486576509422891 -0.979331047264548 0.349296840536081 0.346084117584901 0.845951693992108 -0.543658464934518 0.34578085194611 -0.0685714572056064 0.985943215892624
